encog,BasicNetwork,java,3.4.0,1,63747115899649
[BASIC]
[BASIC:PARAMS]
[BASIC:NETWORK]
beginTraining=0
connectionLimit=0
contextTargetOffset=0,0,0
contextTargetSize=0,0,0
endTraining=2
hasContext=f
inputCount=4
layerCounts=3,7,4
layerFeedCounts=2,6,4
layerContextCount=0,0,0
layerIndex=0,3,10
output=0,0,1,0,0,0,0,0,0,1,0,0,0,0
outputCount=2
weightIndex=0,14,38
weights=-0.698194407534348,-0.688024097543867,2.60576963207842,-3.03227292205667,-1.03882217099222,-1.38279033843236,-0.669862036990701,0.865617678298242,1.17978466533443,0.31159070947486,2.09475414628049,3.33417651161589,-0.949055085027998,0.654567667331892,4.71517421641581,-4.4064205275971,-5.36422015305755,5.64303785284684,0.36826610459991,0.850285675866191,3.54529830612827,-9.86692071546767,0.899016316052747,-0.0425515301834087,-1.54887983644413,-2.02173656746091,-0.988242416360341,39.2017058102648,-42.3811353690504,-49.042738057343,-1.00117839117128,0.116386843014644,1.10916531851637,1.71507558512257,0.172531355222805,0.0548369902094482,-0.325182066846906,-1.22285161338758
biasActivation=1,1,0
[BASIC:ACTIVATION]
"ActivationTANH"
"ActivationTANH"
"ActivationLinear"
